digraph Tree {
node [shape=box, style="filled, rounded", color="black", fontname=helvetica] ;
edge [fontname=helvetica] ;
0 [label="internal arrival <= 0.429\nentropy = 2.136\nsamples = 56\nvalue = [30, 8, 7, 3, 2, 1, 4, 1]", fillcolor="#f3c5a4"] ;
1 [label="internal arrival <= -0.461\nentropy = 1.069\nsamples = 37\nvalue = [30, 2, 2, 2, 0, 0, 1, 0]", fillcolor="#ea9a61"] ;
0 -> 1 [labeldistance=2.5, labelangle=45, headlabel="True"] ;
2 [label="internal arrival <= -0.932\nentropy = 0.468\nsamples = 26\nvalue = [24, 1, 0, 0, 0, 0, 1, 0]", fillcolor="#e78b49"] ;
1 -> 2 ;
3 [label="internal arrival <= -0.947\nentropy = 0.592\nsamples = 7\nvalue = [6, 1, 0, 0, 0, 0, 0, 0]", fillcolor="#e9965a"] ;
2 -> 3 ;
4 [label="entropy = 0.0\nsamples = 6\nvalue = [6, 0, 0, 0, 0, 0, 0, 0]", fillcolor="#e58139"] ;
3 -> 4 ;
5 [label="entropy = 0.0\nsamples = 1\nvalue = [0, 1, 0, 0, 0, 0, 0, 0]", fillcolor="#c8e539"] ;
3 -> 5 ;
6 [label="first dose <= 0.244\nentropy = 0.297\nsamples = 19\nvalue = [18, 0, 0, 0, 0, 0, 1, 0]", fillcolor="#e68844"] ;
2 -> 6 ;
7 [label="first dose <= 0.047\nentropy = 0.592\nsamples = 7\nvalue = [6, 0, 0, 0, 0, 0, 1, 0]", fillcolor="#e9965a"] ;
6 -> 7 ;
8 [label="entropy = 0.0\nsamples = 5\nvalue = [5, 0, 0, 0, 0, 0, 0, 0]", fillcolor="#e58139"] ;
7 -> 8 ;
9 [label="internal arrival <= -0.839\nentropy = 1.0\nsamples = 2\nvalue = [1, 0, 0, 0, 0, 0, 1, 0]", fillcolor="#ffffff"] ;
7 -> 9 ;
10 [label="entropy = 0.0\nsamples = 1\nvalue = [1, 0, 0, 0, 0, 0, 0, 0]", fillcolor="#e58139"] ;
9 -> 10 ;
11 [label="entropy = 0.0\nsamples = 1\nvalue = [0, 0, 0, 0, 0, 0, 1, 0]", fillcolor="#d739e5"] ;
9 -> 11 ;
12 [label="entropy = 0.0\nsamples = 12\nvalue = [12, 0, 0, 0, 0, 0, 0, 0]", fillcolor="#e58139"] ;
6 -> 12 ;
13 [label="first dose <= 1.288\nentropy = 1.686\nsamples = 11\nvalue = [6, 1, 2, 2, 0, 0, 0, 0]", fillcolor="#f3c7a7"] ;
1 -> 13 ;
14 [label="population density <= -0.489\nentropy = 1.371\nsamples = 10\nvalue = [6, 0, 2, 2, 0, 0, 0, 0]", fillcolor="#f2c09c"] ;
13 -> 14 ;
15 [label="internal arrival <= -0.454\nentropy = 1.224\nsamples = 9\nvalue = [6, 0, 1, 2, 0, 0, 0, 0]", fillcolor="#f0b78e"] ;
14 -> 15 ;
16 [label="entropy = 0.0\nsamples = 1\nvalue = [0, 0, 1, 0, 0, 0, 0, 0]", fillcolor="#47e539"] ;
15 -> 16 ;
17 [label="first dose <= -0.492\nentropy = 0.811\nsamples = 8\nvalue = [6, 0, 0, 2, 0, 0, 0, 0]", fillcolor="#eeab7b"] ;
15 -> 17 ;
18 [label="entropy = 0.0\nsamples = 1\nvalue = [0, 0, 0, 1, 0, 0, 0, 0]", fillcolor="#39e5ac"] ;
17 -> 18 ;
19 [label="first dose <= 0.278\nentropy = 0.592\nsamples = 7\nvalue = [6, 0, 0, 1, 0, 0, 0, 0]", fillcolor="#e9965a"] ;
17 -> 19 ;
20 [label="entropy = 0.0\nsamples = 4\nvalue = [4, 0, 0, 0, 0, 0, 0, 0]", fillcolor="#e58139"] ;
19 -> 20 ;
21 [label="internal arrival <= -0.375\nentropy = 0.918\nsamples = 3\nvalue = [2, 0, 0, 1, 0, 0, 0, 0]", fillcolor="#f2c09c"] ;
19 -> 21 ;
22 [label="entropy = 0.0\nsamples = 2\nvalue = [2, 0, 0, 0, 0, 0, 0, 0]", fillcolor="#e58139"] ;
21 -> 22 ;
23 [label="entropy = 0.0\nsamples = 1\nvalue = [0, 0, 0, 1, 0, 0, 0, 0]", fillcolor="#39e5ac"] ;
21 -> 23 ;
24 [label="entropy = 0.0\nsamples = 1\nvalue = [0, 0, 1, 0, 0, 0, 0, 0]", fillcolor="#47e539"] ;
14 -> 24 ;
25 [label="entropy = 0.0\nsamples = 1\nvalue = [0, 1, 0, 0, 0, 0, 0, 0]", fillcolor="#c8e539"] ;
13 -> 25 ;
26 [label="first dose <= -2.007\nentropy = 2.465\nsamples = 19\nvalue = [0, 6, 5, 1, 2, 1, 3, 1]", fillcolor="#fbfdf1"] ;
0 -> 26 [labeldistance=2.5, labelangle=-45, headlabel="False"] ;
27 [label="entropy = 0.0\nsamples = 3\nvalue = [0, 0, 0, 0, 0, 0, 3, 0]", fillcolor="#d739e5"] ;
26 -> 27 ;
28 [label="internal arrival <= 0.772\nentropy = 2.18\nsamples = 16\nvalue = [0, 6, 5, 1, 2, 1, 0, 1]", fillcolor="#fafded"] ;
26 -> 28 ;
29 [label="first dose <= -0.928\nentropy = 0.918\nsamples = 3\nvalue = [0, 0, 2, 0, 0, 0, 0, 1]", fillcolor="#a3f29c"] ;
28 -> 29 ;
30 [label="entropy = 0.0\nsamples = 1\nvalue = [0, 0, 0, 0, 0, 0, 0, 1]", fillcolor="#e53972"] ;
29 -> 30 ;
31 [label="entropy = 0.0\nsamples = 2\nvalue = [0, 0, 2, 0, 0, 0, 0, 0]", fillcolor="#47e539"] ;
29 -> 31 ;
32 [label="population density <= 0.703\nentropy = 1.988\nsamples = 13\nvalue = [0, 6, 3, 1, 2, 1, 0, 0]", fillcolor="#eef7c4"] ;
28 -> 32 ;
33 [label="first dose <= -1.262\nentropy = 1.252\nsamples = 6\nvalue = [0, 4, 0, 1, 1, 0, 0, 0]", fillcolor="#deef88"] ;
32 -> 33 ;
34 [label="entropy = 0.0\nsamples = 1\nvalue = [0, 0, 0, 0, 1, 0, 0, 0]", fillcolor="#399de5"] ;
33 -> 34 ;
35 [label="internal arrival <= 1.281\nentropy = 0.722\nsamples = 5\nvalue = [0, 4, 0, 1, 0, 0, 0, 0]", fillcolor="#d6ec6a"] ;
33 -> 35 ;
36 [label="entropy = 0.0\nsamples = 3\nvalue = [0, 3, 0, 0, 0, 0, 0, 0]", fillcolor="#c8e539"] ;
35 -> 36 ;
37 [label="internal arrival <= 1.728\nentropy = 1.0\nsamples = 2\nvalue = [0, 1, 0, 1, 0, 0, 0, 0]", fillcolor="#ffffff"] ;
35 -> 37 ;
38 [label="entropy = 0.0\nsamples = 1\nvalue = [0, 0, 0, 1, 0, 0, 0, 0]", fillcolor="#39e5ac"] ;
37 -> 38 ;
39 [label="entropy = 0.0\nsamples = 1\nvalue = [0, 1, 0, 0, 0, 0, 0, 0]", fillcolor="#c8e539"] ;
37 -> 39 ;
40 [label="population density <= 0.884\nentropy = 1.842\nsamples = 7\nvalue = [0, 2, 3, 0, 1, 1, 0, 0]", fillcolor="#dafad7"] ;
32 -> 40 ;
41 [label="entropy = 0.0\nsamples = 1\nvalue = [0, 0, 0, 0, 0, 1, 0, 0]", fillcolor="#5639e5"] ;
40 -> 41 ;
42 [label="population density <= 2.671\nentropy = 1.459\nsamples = 6\nvalue = [0, 2, 3, 0, 1, 0, 0, 0]", fillcolor="#d1f8ce"] ;
40 -> 42 ;
43 [label="internal arrival <= 1.396\nentropy = 0.971\nsamples = 5\nvalue = [0, 2, 3, 0, 0, 0, 0, 0]", fillcolor="#c2f6bd"] ;
42 -> 43 ;
44 [label="entropy = 0.0\nsamples = 2\nvalue = [0, 0, 2, 0, 0, 0, 0, 0]", fillcolor="#47e539"] ;
43 -> 44 ;
45 [label="population density <= 1.107\nentropy = 0.918\nsamples = 3\nvalue = [0, 2, 1, 0, 0, 0, 0, 0]", fillcolor="#e4f29c"] ;
43 -> 45 ;
46 [label="entropy = 0.0\nsamples = 1\nvalue = [0, 0, 1, 0, 0, 0, 0, 0]", fillcolor="#47e539"] ;
45 -> 46 ;
47 [label="entropy = 0.0\nsamples = 2\nvalue = [0, 2, 0, 0, 0, 0, 0, 0]", fillcolor="#c8e539"] ;
45 -> 47 ;
48 [label="entropy = 0.0\nsamples = 1\nvalue = [0, 0, 0, 0, 1, 0, 0, 0]", fillcolor="#399de5"] ;
42 -> 48 ;
}